{"model_data": {"model": "SimpleRNN", "input_size": 1, "skip": 1, "output_size": 1, "unit_type": "LSTM", "num_layers": 1, "hidden_size": 7, "bias_fl": true}, "state_dict": {"rec.weight_ih_l0": [[0.21130388975143433], [-0.5373976230621338], [0.47975730895996094], [0.5081021189689636], [0.8021448254585266], [-0.2477380782365799], [-0.8824695348739624], [-0.5707888007164001], [-0.4800410270690918], [-0.13240601122379303], [0.29050973057746887], [0.8764767646789551], [0.5943685173988342], [0.2283853143453598], [-1.637076497077942], [0.464132696390152], [0.37961524724960327], [0.7388085722923279], [-0.660057544708252], [0.5320738554000854], [-0.11013393104076385], [-0.007570076733827591], [-0.11891082674264908], [0.6233519911766052], [-0.9357720613479614], [0.10010934621095657], [0.07670474797487259], [0.08943714201450348]], "rec.weight_hh_l0": [[-0.4254550635814667, 0.21740396320819855, -0.15865755081176758, -0.03916436433792114, -0.6141452193260193, 0.06525056064128876, 0.13049843907356262], [-0.11876613646745682, -0.025268210098147392, 0.9280376434326172, 0.12187428027391434, 0.21198225021362305, -0.006858920678496361, -1.7711540460586548], [-0.30660104751586914, 0.29417139291763306, 0.27722713351249695, 0.6587197780609131, -1.0787423849105835, 0.12884663045406342, -0.20322440564632416], [-0.1292904168367386, 0.06662605702877045, 1.0026516914367676, -0.1314280927181244, -0.42550501227378845, 0.05598846822977066, -0.2383270412683487], [0.5777248740196228, 0.055407170206308365, 0.5404215455055237, 0.19557151198387146, 0.1313755363225937, 0.24398139119148254, 0.12312890589237213], [-0.1383863091468811, -0.2611992359161377, -0.024121297523379326, -0.2319697141647339, 0.31435880064964294, -0.8882817625999451, -0.4146239757537842], [-0.25785350799560547, 0.10508587211370468, -0.2635565400123596, 0.8709625005722046, 0.06144145876169205, 0.8605812788009644, 0.13365869224071503], [0.06354262679815292, 0.20529453456401825, -0.5240150690078735, -0.26621147990226746, 0.1930871158838272, 0.21151003241539001, 0.19492726027965546], [0.12817364931106567, 1.2664800882339478, 0.1394347846508026, -1.2372771501541138, 0.5755563974380493, -0.997212290763855, -0.36149102449417114], [0.4068779945373535, -0.35773730278015137, 0.13954570889472961, 0.20964154601097107, -0.32711029052734375, 0.31316137313842773, -0.2758612334728241], [-0.5544413328170776, 0.14227887988090515, 0.5383312106132507, -0.5056840777397156, -0.6751444339752197, -0.10843638330698013, 0.044470079243183136], [0.17128074169158936, 0.4586074948310852, 0.45860669016838074, -0.11017957329750061, -0.7015681862831116, 0.6041009426116943, 0.5565848350524902], [-0.5408152937889099, -0.22245337069034576, -0.5563173890113831, 0.24700422585010529, -0.559402346611023, -0.03248191624879837, 1.1961644887924194], [0.41739988327026367, 0.024330994114279747, -0.331104576587677, 0.1413286328315735, 0.4872630834579468, 0.6488468050956726, -0.06827890127897263], [0.4585760235786438, -0.18622584640979767, 1.988473892211914, -0.6343820691108704, -0.48520398139953613, -0.5277379751205444, 0.00740047637373209], [0.2730278968811035, 0.8205058574676514, -0.2795984148979187, -0.14773403108119965, -0.01410296093672514, -0.17082002758979797, -0.27772200107574463], [-1.2233827114105225, -0.08862242847681046, 0.01720281131565571, 0.10617368668317795, 0.0693170502781868, 0.4630519151687622, -0.27963873744010925], [1.042320728302002, 0.7661907076835632, -0.03901974484324455, 0.8089410066604614, -0.04379992559552193, 0.23703384399414062, 0.698267936706543], [-0.033638790249824524, -0.34490346908569336, 0.13868524134159088, -0.03307167813181877, 0.44545698165893555, -0.009720848873257637, -0.7771215438842773], [0.24569003283977509, 0.9982731938362122, -0.19176574051380157, -0.23460529744625092, -0.031154241412878036, 0.5789159536361694, -0.299604207277298], [-0.6013014912605286, 0.5737956166267395, -0.5209023356437683, -0.45146673917770386, -0.14733973145484924, 0.3472842276096344, -0.16125138103961945], [-0.31596893072128296, 0.20577363669872284, -0.3846530318260193, 0.010587519966065884, -0.4393218159675598, 0.011183634400367737, 0.3234303891658783], [0.1716020554304123, -0.23818261921405792, -0.5872961282730103, 0.07517188042402267, -0.45617562532424927, -0.2254786193370819, -0.059099093079566956], [0.8157283663749695, 0.09101929515600204, -0.3390045464038849, 0.04610731452703476, 0.2535691559314728, -0.14190958440303802, -0.05524129793047905], [-0.39083948731422424, -0.5920546054840088, -0.061599746346473694, -0.9456295371055603, 1.2637466192245483, -0.6962372660636902, 0.3558429479598999], [-0.33822888135910034, 0.34743982553482056, -0.08188547194004059, -0.08114413172006607, -0.733838677406311, -0.004083910491317511, 0.29250121116638184], [0.5378912091255188, 0.03373512253165245, -0.2981140613555908, -0.13006559014320374, -0.7183302044868469, -0.6138349175453186, -0.046834781765937805], [-0.232214093208313, 0.48267289996147156, -0.36304694414138794, -0.10412684828042984, -0.6777286529541016, -0.11505814641714096, 1.0430686473846436]], "rec.bias_ih_l0": [0.19809846580028534, -1.622511625289917, -1.0367015600204468, 0.031501926481723785, -0.10606773942708969, -1.5601110458374023, -1.8053760528564453, 0.03966008499264717, 2.016979694366455, 1.2141149044036865, 0.35424476861953735, 0.2900858521461487, 1.8414430618286133, 1.709295392036438, 0.2208128124475479, 0.0784883052110672, -0.21919985115528107, -0.09636937081813812, 0.017279699444770813, -0.1414458006620407, 0.19147461652755737, 0.560661792755127, 0.7347804307937622, 0.15532642602920532, 0.2045745998620987, 0.6285118460655212, 0.28906485438346863, 0.8255538940429688], "rec.bias_hh_l0": [0.19809846580028534, -1.5633978843688965, -1.1465626955032349, 0.03147149085998535, -0.10594136267900467, -1.5655291080474854, -1.9320285320281982, 0.039730072021484375, 2.095702648162842, 1.2295697927474976, 0.3574700653553009, 0.31327590346336365, 1.818632960319519, 1.706088662147522, 0.23092031478881836, -0.013372640125453472, -0.5516873002052307, -0.3184058964252472, 0.14383307099342346, -0.13527131080627441, 0.17039784789085388, 0.560661792755127, 0.7745225429534912, 0.14820800721645355, 0.209563747048378, 0.6295156478881836, 0.3401309549808502, 0.8299230933189392], "lin.weight": [[0.4995671510696411, -0.010409328155219555, -0.5659933090209961, -1.2089447975158691, 0.6248162984848022, -1.001114010810852, -2.2352969646453857]], "lin.bias": [0.5623366832733154]}}
