{"model_data": {"model": "SimpleRNN", "input_size": 1, "skip": 1, "output_size": 1, "unit_type": "LSTM", "num_layers": 1, "hidden_size": 7, "bias_fl": true}, "state_dict": {"rec.weight_ih_l0": [[-0.01400653924793005], [-0.2868470549583435], [-0.7287645936012268], [0.006506469566375017], [0.38681888580322266], [-0.2802387773990631], [-0.4400903880596161], [0.22810928523540497], [-0.3049764931201935], [-2.4376821517944336], [-0.7619358897209167], [0.364426851272583], [-0.25201308727264404], [0.238346129655838], [-4.328636646270752], [-0.15155833959579468], [0.5734822154045105], [-0.9294310212135315], [-1.4801690578460693], [-0.17628934979438782], [0.12882350385189056], [-0.013145833276212215], [0.12883763015270233], [0.1421625167131424], [-0.4400326907634735], [-0.9299124479293823], [-0.48901888728141785], [-0.21085919439792633]], "rec.weight_hh_l0": [[0.14691001176834106, 0.15051789581775665, -0.6228015422821045, -0.26224949955940247, -0.6272538304328918, -0.47499024868011475, 0.7038246393203735], [-0.8097528219223022, -0.27085867524147034, 0.47508177161216736, 0.10259963572025299, 0.37547630071640015, 0.4348980188369751, -0.2989189624786377], [1.2022236585617065, -0.26362359523773193, 0.6512895822525024, 0.6233171224594116, -0.28157347440719604, -0.20203860104084015, -0.39316582679748535], [-0.09189204126596451, -0.016801845282316208, -0.3195979595184326, -1.7327055931091309, -0.3458295464515686, 0.6226723790168762, 1.0175999402999878], [0.3901647627353668, 0.018677443265914917, 0.13175076246261597, 0.11708766222000122, 0.22223161160945892, -0.17498360574245453, -0.511420726776123], [-0.20594657957553864, 0.1347181349992752, 0.6941664218902588, 0.6314351558685303, 0.14853894710540771, -0.01410728134214878, -0.08600924164056778], [-0.1546156257390976, -0.2705692946910858, -0.018908122554421425, 0.6099503636360168, 0.08741207420825958, 0.43768107891082764, 0.05556480586528778], [0.6308415532112122, 0.9737175703048706, -0.933691143989563, -0.3464694619178772, -0.5050351023674011, 0.0503041036427021, -0.09290466457605362], [-0.0738370344042778, -0.02719343639910221, -0.7455503940582275, -0.3165329694747925, -0.33844703435897827, -0.6313915252685547, 0.711597204208374], [1.3671679496765137, 0.5087392926216125, -0.7470211386680603, 0.20553351938724518, -1.128758192062378, -0.10150782763957977, 0.5891463756561279], [-0.5645706057548523, -0.46292954683303833, -0.007979726418852806, -1.62985360622406, -0.42178285121917725, -0.5164310336112976, 0.3139333128929138], [-0.2335858792066574, 0.38661274313926697, -0.22654564678668976, -0.24854542315006256, -0.44059696793556213, -0.1057259812951088, 0.02854887954890728], [-0.10821085423231125, 0.035687126219272614, -0.6140164136886597, 0.0714537501335144, -0.31664201617240906, -0.5322012901306152, 1.006784200668335], [-1.0012975931167603, 0.24035850167274475, -0.43662434816360474, 0.4159221351146698, 0.01426752284169197, 0.5940617918968201, -0.15330934524536133], [0.5966675877571106, -0.4811032712459564, 2.699517250061035, -0.1739916205406189, -1.18485426902771, -0.3372116684913635, -0.18132059276103973], [1.3420040607452393, 0.7417125105857849, -0.25731924176216125, 0.10170013457536697, -0.1385657787322998, -0.2686040699481964, -0.10688552260398865], [-0.6188668608665466, -0.02920936420559883, -0.36336973309516907, 0.14005990326404572, 0.08281536400318146, 0.07357066869735718, -0.14651478826999664], [5.769680976867676, 0.4232592284679413, -0.002598327351734042, 1.1550939083099365, -0.16239520907402039, 0.2785176932811737, 0.5764755010604858], [0.02778894267976284, -0.23722998797893524, 0.12003117054700851, -0.009665282443165779, 0.1193387508392334, 0.026159318163990974, -0.128991037607193], [0.09482406079769135, 0.16534097492694855, -0.21318119764328003, -0.0036976072005927563, -0.026786284521222115, 0.004303858149796724, -0.4675365686416626], [0.1839587241411209, -0.1311987340450287, 0.4517495334148407, -0.05927382782101631, -0.04180630296468735, 0.8807479739189148, -0.07895238697528839], [-1.215327501296997, 0.44456422328948975, -0.20086513459682465, -2.6072511672973633, -0.5455982685089111, -0.9043480753898621, 0.6502540707588196], [0.06876448541879654, -0.23865176737308502, -0.2389330118894577, 0.024126602336764336, -0.34148940443992615, 0.05455627292394638, 0.20872338116168976], [0.9853371381759644, -0.11666315048933029, -0.7423211336135864, -0.18146951496601105, -0.040262576192617416, -0.6883081793785095, 0.2703690528869629], [-0.8638731241226196, 0.08645202219486237, -0.5237206220626831, 0.2645063102245331, -0.45270422101020813, -0.07366891950368881, 0.9138914942741394], [-1.5354440212249756, -0.25512373447418213, 0.012452377937734127, 0.22823327779769897, -0.5114853978157043, 0.5939241051673889, 0.7553989887237549], [-1.1072858572006226, -0.2583513557910919, -0.13923147320747375, 1.5128211975097656, -0.6673932075500488, -0.4933924674987793, -0.23005905747413635], [-0.08944545686244965, -0.11015227437019348, -0.14591385424137115, -0.12659984827041626, -0.08886276185512543, 0.2989833950996399, 3.5964701175689697]], "rec.bias_ih_l0": [1.0121595859527588, -1.5641727447509766, -1.6204246282577515, 0.541403591632843, -0.1848621666431427, -1.8846051692962646, -1.3344374895095825, -0.39676380157470703, 1.6151732206344604, 1.7044785022735596, -0.13119922578334808, 0.6522892713546753, 1.7327486276626587, 2.081174373626709, 0.3644653558731079, -0.06186683103442192, -0.023773973807692528, 0.2208472490310669, -0.2004326730966568, -0.25162243843078613, 0.6849576830863953, 0.3275655210018158, 0.45125889778137207, 0.48733481764793396, 0.24317723512649536, 0.38722991943359375, 0.24778509140014648, -0.6866781711578369], "rec.bias_hh_l0": [1.0121595859527588, -1.5328645706176758, -1.7203519344329834, 0.541400671005249, -0.18477687239646912, -1.8891013860702515, -1.4441416263580322, -0.39672425389289856, 1.656640887260437, 1.718604564666748, -0.12910111248493195, 0.669202446937561, 1.7160441875457764, 2.0783915519714355, 0.37415215373039246, -0.14572177827358246, -0.3425215184688568, 0.014271305873990059, -0.10006187856197357, -0.24581056833267212, 0.667561411857605, 0.3275655210018158, 0.46195295453071594, 0.4813632071018219, 0.24516016244888306, 0.38778558373451233, 0.26711270213127136, -0.6833744645118713], "lin.weight": [[0.4884171783924103, -0.08008179813623428, -0.5257428288459778, -1.2901031970977783, 0.41312649846076965, -1.6808288097381592, -3.098828077316284]], "lin.bias": [0.7292452454566956]}}
