{"model_data": {"model": "SimpleRNN", "input_size": 1, "skip": 1, "output_size": 1, "unit_type": "LSTM", "num_layers": 1, "hidden_size": 7, "bias_fl": true}, "state_dict": {"rec.weight_ih_l0": [[-0.20784322917461395], [0.15220725536346436], [-0.17855174839496613], [-0.06018620729446411], [0.3125932216644287], [0.0011443879920989275], [0.039836395531892776], [0.08858050405979156], [-0.10831668227910995], [-0.7331344485282898], [-0.08470667153596878], [0.5682313442230225], [-0.14714577794075012], [-0.16601994633674622], [-2.0633928775787354], [-0.4378690719604492], [-0.19774144887924194], [1.5523885488510132], [-0.30803918838500977], [-1.8111644983291626], [0.43991604447364807], [0.2257898896932602], [1.3056739568710327], [-0.2324339598417282], [-0.17377248406410217], [0.48618870973587036], [-0.038797732442617416], [-0.5005576610565186]], "rec.weight_hh_l0": [[0.12519870698451996, -0.4095624089241028, 0.07796679437160492, 0.041757721453905106, 0.2208242565393448, -0.1156778410077095, -0.2774072289466858], [0.2444460093975067, 0.1260925531387329, 0.1769326776266098, 0.43455770611763, 0.01051411684602499, -1.1114403009414673, 0.5004801154136658], [-0.10629232227802277, 0.5607854723930359, 0.20029442012310028, 0.16459205746650696, -0.6292522549629211, 0.0685851126909256, 0.4996403455734253], [0.007846571505069733, -0.3699550926685333, 0.012270817533135414, -0.11363201588392258, 0.06225994974374771, -0.28585973381996155, -0.2590866982936859], [-0.08095833659172058, 0.08097577095031738, -0.25190529227256775, 0.10556157678365707, 0.007770484313368797, -0.24314427375793457, -0.02054029144346714], [0.07408269494771957, -0.19445987045764923, 0.027523497119545937, -0.07092642784118652, 0.033887024968862534, 0.18975117802619934, -0.16334860026836395], [-0.13494692742824554, -0.037617988884449005, 0.14403583109378815, -0.17869769036769867, -0.040435791015625, 0.7182672619819641, 0.521445095539093], [-0.2787509262561798, 0.06966595351696014, -0.6010953187942505, 0.02442578412592411, 0.23626402020454407, 0.21536777913570404, -0.006529288832098246], [-0.023433612659573555, 0.025116924196481705, -0.22195015847682953, -0.11476848274469376, -0.019910067319869995, 0.4698766767978668, -0.14177030324935913], [-0.47749748826026917, -0.6041674613952637, 0.07832738757133484, -0.1877753883600235, -0.7318109273910522, -0.2812745273113251, -0.4935888946056366], [-0.10861728340387344, 0.08583775907754898, -0.32696107029914856, -0.08446820825338364, 0.09315894544124603, -0.449328750371933, 0.4234967529773712], [-0.4093739986419678, -0.05537060275673866, -0.4756935238838196, 0.2683947682380676, -0.4410482347011566, -0.09462873637676239, -0.18388372659683228], [-0.3946259617805481, 0.8200919032096863, 0.036563288420438766, 0.12589609622955322, 0.04016214981675148, 0.010430452413856983, 0.8844113945960999], [-0.183029443025589, -0.41632238030433655, 0.11379245668649673, 0.26229020953178406, -0.33433833718299866, 0.2145828902721405, -0.1273418366909027], [-0.11149904876947403, -0.13806267082691193, -0.4882398545742035, 0.320728600025177, -0.7524175643920898, -0.009455807507038116, -0.1028132364153862], [-0.3617185950279236, 0.2767365574836731, 0.1688656508922577, -0.20483025908470154, -0.5185126662254333, 0.23781360685825348, -0.4342271685600281], [0.5547787547111511, 0.11259570717811584, 0.3875618278980255, -0.21714450418949127, -0.019273249432444572, -0.03861534968018532, 0.01818965934216976], [-1.2637563943862915, -0.10525564104318619, 1.728402853012085, 0.08748388290405273, 0.5112672448158264, -0.5021864175796509, 0.08712322264909744], [0.5229524374008179, 0.13358229398727417, 0.6150366067886353, 0.0692678838968277, 0.0962170958518982, -0.05825302377343178, -0.40213072299957275], [-1.2120448350906372, -0.44727763533592224, -0.12397977709770203, 1.8477479219436646, 0.4618701934814453, 1.7129571437835693, -0.025383928790688515], [-0.1668790876865387, 0.20411625504493713, -0.16136682033538818, -0.22909407317638397, 0.28725874423980713, -0.7488596439361572, -0.12533482909202576], [0.09624756127595901, -0.5525348782539368, -0.8917281627655029, 0.2647199034690857, 0.08385923504829407, -0.135563924908638, -0.05526125803589821], [0.78720623254776, -0.5173452496528625, 0.37053146958351135, 0.32312440872192383, -0.15742774307727814, 0.6202977299690247, 0.7721226215362549], [-0.47183531522750854, -0.06473272293806076, 0.5400537848472595, 0.07109861820936203, -0.394427090883255, 0.17652809619903564, -0.9137585759162903], [0.17734673619270325, -0.27879080176353455, 0.10463175177574158, -0.21474316716194153, 0.13252131640911102, -0.6779126524925232, -0.24780550599098206], [-0.4519904553890228, -0.09821045398712158, -0.632624626159668, -0.046134039759635925, -0.35995614528656006, 0.18365299701690674, 0.14890934526920319], [-0.2549383044242859, -0.13066306710243225, 0.3642825484275818, 0.34327974915504456, 0.0053924317471683025, -0.1996038407087326, 0.4980015456676483], [-0.3885648548603058, -0.1652258038520813, 0.06965333968400955, 0.04434315860271454, 0.052473075687885284, -0.6509392857551575, -0.2849271595478058]], "rec.bias_ih_l0": [0.46036630868911743, -0.1597827821969986, -0.7631821632385254, 0.9237060546875, -0.6114433407783508, 1.1858677864074707, -0.7015272378921509, 0.009106728248298168, 0.6367418169975281, 1.0239009857177734, -0.047516774386167526, -0.12030648440122604, 0.0075274440459907055, 1.1877565383911133, -0.050511911511421204, -0.1814386248588562, 0.2551557123661041, 0.2837721109390259, -0.1186819076538086, -0.13004842400550842, -0.052864689379930496, 0.6058592796325684, 0.003373754909262061, 0.7207624316215515, 0.8342572450637817, -0.12547780573368073, 0.5651875734329224, 0.3305150866508484], "rec.bias_hh_l0": [0.5605394244194031, -0.004900732543319464, -0.9727391004562378, 0.8481753468513489, -0.4270053803920746, 1.0429645776748657, -0.9846391677856445, 0.0304519422352314, 0.819657027721405, 1.054236650466919, 0.03418809548020363, -0.009617533534765244, -0.13202090561389923, 1.1803981065750122, -0.0358939953148365, -0.29687854647636414, -0.21639618277549744, -0.23135164380073547, 0.15136973559856415, -0.12025776505470276, -0.08496556431055069, 0.6679954528808594, 0.17879603803157806, 0.6332700252532959, 0.9371404051780701, 0.14213785529136658, 0.8482689261436462, 0.385742723941803], "lin.weight": [[0.5380246639251709, 1.1251804828643799, -0.3302457630634308, -0.048756036907434464, 0.12758690118789673, 0.006497946102172136, -0.6403385400772095]], "lin.bias": [0.2808151841163635]}}
